FANN_FLO_2.1
num_layers=3
learning_rate=0.700000
connection_rate=1.000000
network_type=0
learning_momentum=0.000000
training_algorithm=2
train_error_function=1
train_stop_function=0
cascade_output_change_fraction=0.010000
quickprop_decay=-0.000100
quickprop_mu=1.750000
rprop_increase_factor=1.200000
rprop_decrease_factor=0.500000
rprop_delta_min=0.000000
rprop_delta_max=50.000000
rprop_delta_zero=0.100000
cascade_output_stagnation_epochs=12
cascade_candidate_change_fraction=0.010000
cascade_candidate_stagnation_epochs=12
cascade_max_out_epochs=150
cascade_min_out_epochs=50
cascade_max_cand_epochs=150
cascade_min_cand_epochs=50
cascade_num_candidate_groups=2
bit_fail_limit=3.49999994039535522461e-01
cascade_candidate_limit=1.00000000000000000000e+03
cascade_weight_multiplier=4.00000005960464477539e-01
cascade_activation_functions_count=10
cascade_activation_functions=3 5 7 8 10 11 14 15 16 17 
cascade_activation_steepnesses_count=4
cascade_activation_steepnesses=2.50000000000000000000e-01 5.00000000000000000000e-01 7.50000000000000000000e-01 1.00000000000000000000e+00 
layer_sizes=5 5 3 
scale_included=0
neurons (num_inputs, activation_function, activation_steepness)=(0, 0, 0.00000000000000000000e+00) (0, 0, 0.00000000000000000000e+00) (0, 0, 0.00000000000000000000e+00) (0, 0, 0.00000000000000000000e+00) (0, 0, 0.00000000000000000000e+00) (5, 5, 5.00000000000000000000e-01) (5, 5, 5.00000000000000000000e-01) (5, 5, 5.00000000000000000000e-01) (5, 5, 5.00000000000000000000e-01) (0, 5, 0.00000000000000000000e+00) (5, 5, 5.00000000000000000000e-01) (5, 5, 5.00000000000000000000e-01) (0, 5, 0.00000000000000000000e+00) 
connections (connected_to_neuron, weight)=(0, -1.49997924804687500000e+03) (1, 1.49999243164062500000e+03) (2, 1.49997863769531250000e+03) (3, -1.49999963378906250000e+03) (4, 5.09388017654418945312e+00) (0, -1.46602526855468750000e+03) (1, -1.49948583984375000000e+03) (2, -1.41832910156250000000e+03) (3, -1.49944812011718750000e+03) (4, -1.49933288574218750000e+03) (0, -1.50000000000000000000e+03) (1, 1.50000000000000000000e+03) (2, 4.67479125976562500000e+02) (3, 2.66671691894531250000e+02) (4, 1.50000000000000000000e+03) (0, 1.49317858886718750000e+03) (1, 4.13887573242187500000e+02) (2, -1.45645361328125000000e+03) (3, -4.32811004638671875000e+02) (4, -2.05242967605590820312e+00) (5, -2.05489087104797363281e+00) (6, 5.20601129531860351562e+00) (7, 2.08447790145874023438e+00) (8, 2.50378608703613281250e+00) (9, 2.73046469688415527344e+00) (5, 7.05340290069580078125e+00) (6, 5.86163282394409179688e+00) (7, -7.23665505647659301758e-02) (8, 6.30774545669555664062e+00) (9, 5.21351623535156250000e+00) 
